function [y1] = NN1(x1)
%MYNEURALNETWORKFUNCTION neural network simulation function.
%
% Generated by Neural Network Toolbox function genFunction, 10-Mar-2019 18:32:41.
%
% [y1] = myNeuralNetworkFunction(x1) takes these arguments:
%   x = Qx18 matrix, input #1
% and returns:
%   y = Qx6 matrix, output #1
% where Q is the number of samples.

%#ok<*RPMT0>

% ===== NEURAL NETWORK CONSTANTS =====

% Input 1
x1_step1.xoffset = [-1.185888;-2.892391;-1.648629;-3.069374;-1.552193;-1.55725;-0.537292833333333;-0.451500000000012;-0.561260000000001;-0.565249999999999;-0.531300000000003;-0.535294999999999;-7.3249999999963;-7.63888888889576;-10.322222222223;-13.3166666666641;-10.6527777777773;-9.64999999999685];
x1_step1.gain = [0.769393525553483;0.82034494848808;0.599638837528157;0.611750104486918;0.702876522166968;0.632532273377918;2.07309132641048;1.99833472106577;1.78487762432788;1.78489089854383;1.89645363170869;1.84403462482349;0.133496495717019;0.130909090909026;0.0984763519982459;0.0750938673341821;0.0984952120382987;0.100151618422351];
x1_step1.ymin = -1;

% Layer 1
b1 = [-8.1246267557254352454;-3.2591561573956977504;-1.3614626247179493213;-13.188268521194133953;-0.10092899029614976758;8.837758969362271344;2.252077466219910562;-0.28227798431555573;-0.11548095264327157272;-1.7723219152805103072;3.1191152272821556224;-8.1558921813287490465;0.56310756021929397885;-0.54977817867807998731;0.26300817298686685053;-0.033822574638733934882;1.5593566419481958985;-11.96827800410752296;-6.3369878443322900097;-2.2936456631611630286;2.2421279015607322727;-0.16214992909161604628;0.45873772990618072454;-0.63970446476826448023;-0.76058194214263752375;-0.24917589184767038879;0.054030570295371838085;1.0289062584774204545;13.310046552656933372;-1.2199261401724135201;4.3322708906580862376;-2.0282673299116988908;-6.5423748767005038829;6.7166286455957768808;-2.1532481782092354194;4.412850359086622376;1.9064990407090236513;-15.218478821797186029;-6.4716379209206085221;-3.3988342162134186353;-13.061624421447149302;-3.393178728247983944;4.519745309158300195;15.151632956825332954;-13.704081049785884261;-0.18554726070319310649;1.0794331070333271771;-1.8125733359469557993;6.6086354061419871897;9.7412124009413734171];
IW1_1 = [2.5975620067204712171 -6.3451624459662552269 5.5400799776036722122 -2.9007438835494072649 -8.3985730888421095131 -3.7787937789833456748 -17.051781690264885327 -8.6346180020216731776 -2.9308561391658791706 -3.6937279515835581556 -5.3024861475056166427 5.668756692230423333 0.85668033572561175237 0.22019091341500987569 0.25486752949460095286 0.16433262929773417849 0.28558934259141721679 -0.41822586685189067079;-4.7788695713895279482 -0.051148622188670972433 -2.514586943027706134 5.4415181910375745034 -5.1796902906737605221 -3.5453212586243099125 -0.11313730389852091895 0.39044157932290507462 0.87741524669916770574 -1.5832227854642679787 -2.2297502934747672754 -2.0455072409272618827 0.0053762146804669499675 -0.020647592523515254787 -0.057971659896539975976 0.10935975554996349435 0.11471225798832095089 0.095302978737097754358;8.319683120992309 -6.5574656146383318855 -0.77671615290328843706 -13.495438016512396828 25.397371321784167009 -16.188338312407662301 -5.5090009510987867358 -5.9826945580218486853 -0.095970520142770132654 -5.0763799874883970276 -0.86285715674164820133 -5.5953784102642512011 0.207623285363816662 0.26320233759907435411 -0.015854607161934829856 0.25825408560874485442 0.04786033509378905676 0.30806985458963875857;5.1762573710565655816 -14.21010760353843061 17.279094105661364722 11.555620846928334799 -0.71343676698868208064 4.8851379254038107547 -11.273353921239360531 -4.4698143696920480394 -6.0877565182238413399 -9.1860725188834972954 -10.496669024514819313 4.3719071457279579107 0.47508164893412663243 0.21693918955809921023 0.37435241788334577828 0.56560118119770175227 0.62622120507656253707 -0.25711437364704459174;-1.7694568325597574976 0.56542663146965510546 0.53565873971671096321 -0.28555619723826797252 -3.8248746774464819076 3.4647903800697288368 0.38162186376448542502 -0.62439572397407516746 0.099503330261562564218 -1.7020949579817232777 -0.43531105268289344012 0.22573352349236977532 -0.0095513071796826890664 0.017042098214967795616 -0.017593357258905290008 0.11335279308484534633 0.020767728395750004872 -0.026791414669910262186;-9.0778085250480735624 -3.6722885076172198104 -1.0335811866875517229 8.9510437057608829292 6.2991629027877067415 2.9210174271678717162 -0.48070270949008758743 0.042731736035740944257 1.0868528731332229853 -0.66575037563253725015 -1.6690827677032336052 -1.7788645367011435283 0.025207610354031573241 -0.0070120837274730866626 -0.073795505609551059756 0.03970353762157365074 0.083806811649342893844 0.096607897196694353381;-9.4545847281323656119 0.86208195331510772963 11.724052782758780822 -11.560424059674090813 6.7746162658319057925 6.0207553875521568898 -0.78205207384891273215 -1.0370481363604904246 1.5630077455246926821 -0.60612419946639517487 1.1709857009032604847 -0.93706978062613222047 0.025603563731331231007 0.038581189665935329558 -0.080435119413055158888 0.050577346366642239595 -0.085012722789416253488 0.051477743478693688273;-1.0684135172204534125 1.7877317849124687577 0.073962986711438083454 2.8600759585513726435 -0.59307473397363275058 -4.0670315851412741637 -0.065375305679385181667 2.0814698387348302688 -1.755403279981475162 0.5752234451465820797 1.8165014432047779103 -3.3347575349297855496 0.002648899081984724263 -0.09135544234450973522 0.091889292695988750159 -0.02884813622778935327 -0.08272483945440912978 0.18075124999413064164;-0.12733931097374390218 0.62509211382631546527 0.027006236726386363689 -0.23067177517700129807 0.14243935704985438706 0.34004514039658562119 0.28781238892838045818 -0.0081477386576088647874 -0.11722160458797317717 0.034518189174577863787 0.080912085308798509242 0.38273887769528786018 -0.012738091023597779977 0.00082256590057566139011 0.0071338327506142431775 -0.0004166809758276881874 -0.0051730289271019053166 -0.021375912783194662287;1.0832935151889382386 0.27087151807793141689 -13.300200456967161244 1.5462192525108984231 -16.938791427733711714 7.4447646335332136047 -10.778671612693521809 -3.7086812188043798422 -11.327182610977644117 -4.1573561505176774844 -10.21681194652275515 -13.824718413942704842 0.59146536647356307004 0.084679041318355574575 0.80263069088161720366 0.31600201904827518451 0.54746335681034230536 0.81126280481706136705;2.87818206330829085 1.5805713532288225842 2.868494311800803942 -7.292192196999602416 -7.2046699414727504163 1.0817055059270963557 -7.0756414340086255521 -3.7369263215332226835 -2.508061241920958917 2.9240168129466375113 -7.1247896223845073038 11.369247616143990598 0.30602799976505679069 0.14163237389208258032 0.12637456517273004675 -0.22066578007585363475 0.39266549172727488459 -0.62746337347272207463;-7.5952362597141416245 -1.0423174463881992313 -1.4548476247410988549 4.4909273151839954608 -10.251170047162965204 6.0532580707592789082 -5.7686911966422398379 -15.102084263101470896 18.301470337385715936 8.0352238825397428457 8.7004126673931772018 -1.6561335667352321543 0.25613337661353485775 0.72975490611379656425 -0.91489954737716538968 -0.51805897599744155091 -0.54801041272625228284 0.17017858919567294129;3.8693052290911702507 -7.1162554174852168387 -0.20055067595795073032 6.9265246617771847326 3.7358417800741228199 -4.6820757282657563536 0.75956242253698935674 0.39055468367673451535 -0.59798463352225494916 -0.18046529120100554544 1.4210426357238623574 -0.47626430917914464036 -0.022431623112025688566 -0.033389791451679542988 0.036290288132985758229 0.026053359555473127457 -0.074580244271672008205 0.017580585855453401828;0.41453294162820281121 -0.36433166836986236037 0.66254123131058262341 -0.7768839251453534267 0.082736979431997162426 0.74497443874322921697 0.34190006190293853461 -0.15773181212307887944 0.22277646319480406967 0.24638279399610396592 0.15419668247817383544 0.59107889550786052446 -0.013537298253320435501 0.0096585413128074081024 -0.013468161058454303225 -0.014317128285579371061 -0.012924393958781822331 -0.031733641597899486797;4.5981959022183565011 -0.87271027258374456181 -3.8448508612964440445 -0.054748518266068989246 -0.23750684692744405968 5.9849978089407898096 -1.8929417893956785868 -3.6476050394471055682 1.1416932592771853461 -0.40835251564337310404 0.21198868109142551819 2.2399655949396710675 0.080970135474759216687 0.16849085356240969813 -0.074850515780406787214 0.029414312850924544118 -0.045360983847408241354 -0.11987298372367849453;-0.74205693380335580045 0.074694375003038077088 1.1092682513720593107 -0.42737541732164902042 0.4828650433634673611 -0.41842573459861565066 0.33869167420893342424 0.5772027536330402997 -0.40010232254597666302 1.3683311443098846727 0.90057620941540750259 0.29195724777007092676 -0.019824321457373277056 -0.019701009920213920917 0.028394472360359659241 -0.089166180356587132483 -0.045362094446445129503 -0.010957979389540585188;-0.3589472044427882147 -2.6916991466278794576 -2.4967333311864905454 1.0396833351376666421 -4.0229751800031658959 7.4009806772228667882 -0.90657005928093292724 -0.72852060986449440616 -4.7230061442963355844 -2.5910067991767911089 -1.6269438808261449392 3.4602090783964989384 0.04811005182459976437 0.030400124714568148299 0.27172220016181292124 0.18666718194878839654 0.084860688220491989342 -0.173797583971707581;-3.1902363565543345736 11.390674467124298985 26.679095997904632043 9.3283480527218607392 -26.606275974177062693 5.0602566705362663768 19.146881025423137856 18.401361726101423955 0.18545966085914764032 4.9250917316404061452 1.1860467567971104685 2.0758834202018099369 -0.86201463489701057874 -0.81264463402120135083 -0.002301895487621999619 -0.56564620346628147196 -0.046590643881750645749 0.064714116568469981505;-5.02807299602661395 -8.4730349239794406913 -18.82572878093473534 -11.396713350303356194 -5.2474782827097774529 -5.797390153829688586 -21.038434545448591706 -21.344902803262161939 9.5914856562862809142 -4.7518273577370591099 6.0752308672205197482 7.6214374911076090413 1.0443801890829853551 0.95355397253995699547 -0.84366027444366331611 0.37461492315860872582 -0.6483956807184795279 -0.4537677512601658858;8.8733767665987564044 5.1999597039507783336 9.1410387733508944308 -4.2886687365180096165 -10.347901797909834443 -1.4603378896387351205 0.72503238181279139329 0.44724350628304165856 0.39841251401452493219 -0.36411727188303089076 0.014036894870174891625 -0.58026204542396242481 -0.029197264440678206282 -0.024785719767536157354 -0.041504500501413944813 0.008393287292764140331 -0.014258320718143367364 0.023789611987284679795;-1.8849755690481355686 1.0586044448968594534 2.0132231513797980149 3.7483491300407587588 -0.96293677447126957425 -0.86877643630564249655 1.1625861954328291503 -0.91219631733683947949 0.97518431428621310531 2.4362696294076644499 0.76140542520413179162 3.7748464695923211742 -0.063802990168604606369 0.053383688329067223444 -0.039256932339537489729 -0.1753506615254873946 -0.039372196599008188467 -0.194999862291691195;-0.08458831469167643613 -5.3223002444468736627 -10.796844027544752365 -0.61843579502877510379 8.4203878949908474993 -2.8014619339617494731 1.5115946093514016635 10.325672236569781504 -10.950080974173975079 -2.4101998626978478057 1.7324672662952367297 -9.9833486980345043094 -0.033772125322556446891 -0.43415769056667991022 0.62653086697111304293 0.13002159871756358012 0.015338631007472720499 0.49990161429923674064;1.1026797176198503969 2.2579429332923450779 -3.6975953234973180095 1.5603566597884568345 -8.6875833995963507306 4.8507251608097128326 1.2384867803184103074 0.65034718853905959524 -1.3696005710370058317 -1.8861006658668475477 -0.55572077611173664735 1.834967146515472658 -0.033498400060100873288 -0.025113810876464044003 0.085430803281665329552 0.12009416935181989328 0.019339315315390723238 -0.11579037342952583356;-15.017408330643736036 2.0592917881935588476 -9.7695308101468345541 -7.714724625553197157 -3.8102250904677168464 20.180812433374345716 1.130757295556361619 -24.85672004392850809 17.45420968465547773 -7.0699951614897722507 -10.006006758301644766 10.849337520126503875 -0.637084459539823178 0.91687237018489708973 -1.1713735637313209548 0.47788190175161943118 0.3482749594226806078 -0.44773971896273134785;6.5893791449161254192 21.810833922112585981 0.97687531267145333302 -3.5542678499047690721 -7.0366083484337194065 27.615664013862311066 -10.315806407686705981 1.1218993640866563588 -14.420266978935718072 -7.9370560721432052986 -8.1340005262013566067 -7.266737966399914761 0.45101255024310243913 -0.10614565370915229892 0.72005157322057500302 0.42861483643326026005 0.47205347729105956445 0.33124295985946033971;-1.5449857634691803732 -1.6877183033186624606 0.92336905522056422768 1.5725450905278228753 8.550362288572038949 -2.827121645961710783 2.3395407929451135232 -0.73052620121971734157 1.9692137619498590873 0.54323460502384202098 3.7679517249665490652 0.80622846359160060814 -0.095577767709575059407 0.048256546777279182847 -0.1030572122734488838 -0.043219533743096671952 -0.22139712956853904724 -0.035227367075149930431;-2.346659882584690493 -4.4974409041759830785 1.5939611946216960536 4.1466844401665126085 12.32850098782459547 -8.7867354113629758672 3.4777872401141958214 -0.59467542568584197404 0.48016915809280064087 5.2043597931814113977 2.0898252974047122343 8.4447536151678708194 -0.19077515942785658321 0.059558626800423654368 0.0069855235054885646273 -0.34749537060095680996 -0.10186675213836719756 -0.43718908502700415397;-2.844474668493440106 -0.92614064271133300643 -8.5467125796179068686 1.0013080926327313502 1.306607969990900342 -9.8411055276293577521 -5.0689449206420968963 2.5513585481560490109 -7.5010835569331915096 1.9057389551807473183 0.77889202397024059898 -5.1640861597426601648 0.22185202533224307464 -0.09544845405997204324 0.39882818732450220356 -0.10993651459255265879 -0.075097962544638172111 0.22347100886280299448;6.9486129856360268064 1.7213125372025044335 -22.031435264189223489 10.452420592046395953 -29.237406905997556095 14.818810945090568509 3.863665184803926067 0.13677013504473350958 0.38140903185082142279 5.5340506779174170049 2.5334414463089842684 12.978148116854038463 -0.2587939214136356636 -0.018649121522442056037 0.030403549970564200389 -0.38233332889782689623 -0.075924920986452509863 -0.66741149242665331887;-1.082687456450421859 -0.77976902220010779754 -1.3816711354415314172 -0.68051268472222548045 -0.40058676881525279168 -0.76544919715520509662 0.56891400575242345727 -0.21565301038765102848 0.22700352389757377791 0.51891430814371175551 -0.20206279687154546365 1.4063265573179983825 -0.03512568406487463768 0.012924612007950806933 -0.012330599737242309982 -0.038346169752571136746 0.011097615147407475025 -0.076498228031798454207;3.502721540873189543 3.2458092245735774561 -7.1562912005878489552 4.44511363224172662 -3.4672108736772551119 1.2259480457724798441 1.1212871333749290237 -1.8307358054323192853 3.8012831291832114289 3.3716061105938446296 4.1262478284331916001 0.25442863229285123117 -0.060367921215939431001 0.11354055933054514604 -0.18579091737064187817 -0.21548810478952112879 -0.23990446299649517692 0.024537278021020753754;3.3991537766268589138 0.099496767221877266407 10.10915987147513917 5.1815064130845600587 5.179143486647298289 -12.682439672841017142 -4.9322639812086910283 -13.161163530479315753 3.9903886074073464663 -3.3390964257161797057 -5.9947598443968734827 1.3971702508964864986 0.52070698726062114581 0.33060183655154140592 -0.86475495199469321062 0.052458256985179377296 0.11195096354456716969 -0.30023105913595760086;-15.222011410885510685 -6.3059962348552884848 7.6604811623000879095 15.032763322486232482 17.681617767092390636 -13.840124228261807104 9.0216729814333973536 4.4275643152508150635 2.5822945495616789202 1.1441281044043871695 5.6401606720826897856 -7.3772770561354699126 -0.44312591858649763576 -0.17589665346241617483 -0.12497945791917514091 -0.058221806785233816417 -0.28638683225526651022 0.4086142505558976179;2.3291293315670356101 12.041037756025769312 -22.479868676820370155 4.3327982228059749303 -27.082229806071449474 8.4054375207943845538 3.8801249724586415191 0.079157526109003534254 3.9811447000871740265 2.1139768327611161425 1.3096082902104486667 2.3259344071110503727 -0.14839215751060122472 0.0040115166768526465402 -0.30230734791838814735 -0.19654830513523052771 -0.12236783887994766296 -0.089219689994230633179;-4.8297863503947269237 2.9238473826864765925 -2.213209407834674014 -1.6702913431477679485 7.6695572246937802063 -5.4850789494686829073 2.9380813099838580804 9.3624212799740025304 -2.2780319284564258808 -2.0481193223256348723 -2.3591796012201675659 -4.2700701367139597409 -0.094507553636709942801 -0.35607328740755356256 0.14677962171769198818 0.15628635304003996032 0.18954171032016903231 0.25167471520210377145;8.8074666454865493392 -8.1087669918264229096 -13.229498067958266105 0.90822405427189312199 0.58762047489942825784 -9.0477947677453229858 11.206173402775867487 4.4242938407811420731 -5.8298327159949172582 5.6228167342610344548 3.7109876672418988797 5.9926922532318895875 -0.52934980786266283559 -0.1361895712079095877 0.32587344099429010891 -0.3559784917565588791 -0.15490802525268546064 -0.35601715142416351378;9.5259175940431255469 -8.7643206224853589248 -6.8218321937251582554 -1.19735966978908559 9.1537958702029929015 -14.844773918326795936 -2.0121831604795770154 -0.51814132265120160792 -1.4131936999698073709 -0.42847187570148076441 -4.7488738503248040246 5.3985198274474255342 0.097896451941256998341 0.014827279167523270062 0.078449323087382491493 0.012861594727757713966 0.26848068633409855055 -0.30057765912037526235;-3.8683621398115146661 -9.7539390162400572137 -2.0738370107303669698 6.9375428574071449361 -10.345625074409515065 33.915377208591934277 -12.113258376382058046 -0.54682143723038101335 -17.923685378790437994 -12.460776371250387839 -7.522482236308768222 -8.2269424046054258071 0.59730498223030470406 0.079868462514304378042 1.0793587125240631241 0.92295490364076426815 0.41828039857823084979 0.38938378077468199789;39.150353568986623998 -39.723767569951142775 3.6447469568679395913 -4.2489993573598328069 29.779141034570209001 -6.0554337715855615087 14.440068636199535845 -16.136128322650932887 0.79047375330348579325 -10.487399702598052542 17.608040734767140378 -0.68201003859539321983 -0.46498371724893011736 0.85112690471134611059 -0.10277682606294222256 0.67223366892893798852 -1.326672090657888381 0.095947545600608072358;5.882865886816998291 -1.5968859921683256076 6.2594437150250685775 -3.7792342987010330013 0.66520052634416526605 -0.92374897285293422478 0.72836669886183424971 -3.3537243454913960861 2.0811198355053872611 0.63462088128294302791 -2.1402713223648874852 3.8171745618460026783 -0.036279751853725498989 0.15456383463407186163 -0.087478807118085116779 -0.048510982536806468435 0.11645366436556724155 -0.20609603392238418085;-13.426712658896963859 -11.941310882257090142 8.5943786973613409685 12.612174310641075081 -5.7594060528990844716 23.461104691465674676 24.76816498938341482 9.8453435588880200413 -4.6723114388797295504 -6.0804047373359413342 20.733736636095180472 -22.673474398916667383 -1.0266236236508960999 -0.41196572032925182771 0.13977759813344256545 0.53716355892626166391 -1.1384677119375112841 1.2816717241404327332;-4.0272988607957680429 -3.3982411584138074723 -0.015672222215493188807 4.115931037168112816 -8.7522888771501428096 8.7937422716181359306 5.8676765450743966213 3.1404056443937555798 -1.7506182692351450747 0.72528065684176568073 3.7102309162778919216 0.68623078872338005851 -0.23616625189890150249 -0.1181470981843985163 0.11590976149187019739 -0.030871971368348013337 -0.21784192993931197901 -0.023239583841589708801;6.6633337770184883908 2.2334668081474866597 1.0701470885669368549 1.6610798031515912054 -0.64302822224045641519 -1.4387647571147854642 -1.5319985279667007738 1.2661112403128211845 -0.45123405033501096106 -2.1411953526593068275 1.3919060476216191802 -6.0179310048575525016 0.10725777597350659442 -0.067358510988276068532 0.025718027895584739256 0.14853971077869612682 -0.077362354419936774086 0.32556169977352372724;0.59554749415535512824 1.2161803596674600758 5.1821255689777911968 8.7903816883564278584 -37.20739311039562125 8.6834780894542955565 -4.3776189056285677026 -1.0822118977666508322 -4.619386529113548967 -12.557060829829891802 -9.1205352715306062805 -2.9020412391173873168 0.24928150283718572555 0.028413038247250440443 0.27305763080825967704 0.85836184860268982533 0.51103291647060922198 0.10944429465759369924;-7.7385977805669590168 9.2915290595546338182 7.3017963200420359371 3.8742876984697218745 -6.7084055213494320213 16.55256309796758174 -8.7604796153616444343 -1.0714154157127309119 -3.7134217117762862159 -7.75755844134140915 -6.8873353788116080665 -1.1343556177381022287 0.40969615323489283476 0.032743037111289605146 0.21459321145800888675 0.47775841763601584189 0.41984921127753166425 0.07339430349638494111;6.7397660637756473534 -4.1868728246512230129 -13.608927573054632632 -1.0890062911655720157 4.4941209050631023558 -6.593615463902606777 -5.091348359616929109 -0.22047011809695227225 -1.5170284196744057148 4.0082572752550014172 2.412308652658963215 -4.7076925379636929136 0.23393730409526791725 -0.0062358282931492051149 0.071809825104309721322 -0.27407553027540609847 -0.16480048700660679395 0.27148714941778623322;-3.080032447941028817 -0.65546676010287929781 -8.3117302444158429608 1.0694707013941320284 1.1715116816692001667 -9.5115727730372441329 -4.9950193763338921471 2.4887411736580418165 -7.1731135074585603562 1.8920957816043404431 0.84376252824509012651 -5.0874888004320242274 0.21505038784843355515 -0.095243258023927496181 0.38331270339635914457 -0.11068511807327545415 -0.077584956687418313304 0.22233870988895526599;-2.6404458923949776228 -0.74242013053625588448 1.1750105754704469607 -3.8221205351263147776 7.9641558966093786154 -0.90590498543146646959 -0.32117581928736782526 0.96640790087654115936 -0.84936728983714060437 2.0189981376622427867 1.0254622239872350775 0.76783661435873740153 0.011344136159577215481 -0.031939850634065840296 0.050642378447415828391 -0.12830493446325358375 -0.054740622564789932769 -0.032847365758047954165;6.7166388084555164184 1.3978862890444836431 -4.4005996817594095205 -2.3000768733023622126 5.7360798519052300648 -0.11863490501401509347 2.531566850790774037 -1.3726538610000511564 7.4861970543270954792 3.3870193758720525956 -0.013576129246741818965 2.28702546018954056 -0.17835940681949663533 0.043286689081351768793 -0.39581728251807812846 -0.25739913193502172994 -0.011792733603386722219 -0.073411346428301035849;0.83979338512787349291 8.6134527639567366464 0.71514576011699271252 6.9190998802589920302 -8.4602634639554974427 3.0494653783945997461 -1.6088547406896178682 -7.9750353205214334906 5.3556735031079929499 2.5456844432596454908 5.3445559614525359748 -9.612844013569890933 0.077469257736655541824 0.36900459421589648645 -0.38657127194109325297 -0.12153913978463411205 -0.27682513522152690788 0.53687512413897542363];

% Layer 2
b2 = [-0.16360976703606025517;-0.16016187789214353376;0.071300075774311647003;0.81622627337728592689;-0.33074979947895277732;-0.33064244327370589938];
LW2_1 = [0.0092455465576902068348 -0.023691631724456506392 0.06050156767173223149 0.027887290872430754718 0.19301232653267008654 0.16038913172056515344 0.00554275136704337687 0.059768338533525096345 0.24341898093934660752 -0.024803781783570302832 0.020289593636326683918 0.026076157028873340332 -0.034554592272758456739 -0.0061368269709094862285 0.099613347833651333385 0.06488829432185659607 -0.038991264263539625323 0.34162526583691288362 -0.0044012583298694658504 -0.32969206815716867176 0.0036810838909576461264 -0.039413455930633799207 0.074367642320345553331 0.0028879705167323948406 -0.029656749892663907681 -0.039999534877201758931 0.0092185760339222738713 2.0749414875774876421 -0.054865629927248589504 0.038911177176153020907 -0.093436038611985280933 -0.13236880560302544119 -0.050890182173940645693 0.384119790110435122 0.080003944840284529905 -0.03559633303366109558 -0.084069841991268046133 -0.11535162924837943921 -0.0082858035210217947236 -0.037395585721598186002 0.006998836492382900544 -0.035186398941678839747 0.012460629048637395302 -0.003881794606838251567 -0.074239425057565491817 0.089443719782936997875 -2.1165660605010736539 -0.0082838393806186991913 0.10390889942582370864 0.020522863796286355126;-0.0020946922015757153158 -0.091317621695370304602 0.0095678027186847734026 0.19231377825816903249 0.10904998740499209642 0.27766415189585164081 0.014487750375227077468 -0.018067783117854351732 -0.65746215813248942705 0.021653387344486671462 0.077219203385856777233 0.0027850005524352834316 0.16361977403649483054 0.34022605631807290028 0.011627254371087495863 0.19178857727010442669 -0.0230148548095896327 -0.0036919827895884149531 0.0043693494661814274646 -0.17428499601089542104 -0.26487878534769121464 0.0066806291888203191837 0.10490239010267121689 0.024442550285458615467 0.0047159015543620464925 -0.012098899992732484523 0.17673436807279685468 -0.403983087468512303 -0.0906704098246016027 0.35284659746162400085 0.090678739059952384594 -0.0068514198235043975715 0.076201359508781207897 0.0092915361320511594828 0.00070299843777009895975 0.013947979125882161572 0.046955695850378439959 -0.069488791411089226302 0.00099012294184540436577 -0.014494599280621385876 0.045270948559027447688 -0.05688210003427716932 0.12145450594976434089 -0.011168393379169526056 -0.29064755964702110314 0.0064536999533006504659 0.40615989229542281969 -0.11785439303879222117 -0.13073083049140241108 -0.031216471002778210797;-0.02784438886294973714 0.18280785371891886126 -0.12004261104779995195 0.012450820095099433132 0.0030268527914455406296 -0.04055627963236679151 0.089486832118540304837 0.23525218962302804626 0.079951891028204366552 -0.010708136533171970159 0.00028742005995963267311 -0.064853598347225954734 -0.14677051704342367056 -0.3168161986302173716 0.10535311046740290786 0.37773121525277497668 0.062097026039650442264 0.013978582597670348789 0.070497388288125795164 0.042604973141875543408 0.036368975405856512895 -0.073029698225797134992 -0.075947628589262364263 -0.074094783481035625394 0.20691458155185285528 0.16308074273078343452 0.040529826494176385276 -0.82655052455625899199 0.0022625675804278481962 -0.43897960999051754971 0.25077349608357646371 0.023174107797761397953 -0.045244970330136538572 -0.0054695994321828046367 0.056179722374514587391 -0.0074054674656352688367 0.037557515243312571129 -0.034250901136453695828 -0.21651253985505874988 0.21231958161042005506 -0.0017277312588337839783 -0.04898782250019007023 -0.067709207062153192735 0.14688404456405065868 0.015311566161112710391 -0.14474838536603343297 0.96093105680975543503 -0.2689576243926263821 0.027855051800234668924 -0.031054653911075848216;-0.022858246062875738069 0.16870002243018297761 -0.072701530446742435032 -0.11525345139662476757 0.073754705710452256318 -0.31602433730399875911 -0.17920026506878211636 -0.39657898922461881641 -0.31642466978550837231 -0.069169703409466529176 0.21432513019350363237 -0.029871467791516375517 0.48485105930356836579 -0.66338406297526941735 0.18460794055138513015 0.16659344537444312206 0.3561750621430455066 -0.076603593239613146371 0.085826064094830553652 0.25521651361297847949 -0.052313008681434333691 -0.054324372251883135121 0.01459709831846021065 0.057115428925532944759 0.080667623687528000609 0.2599434796108842094 0.11900564551137328417 -1.4452962495069325843 -0.077935847724294265992 0.38608456245974209775 0.093574056587412773878 -0.10533777576757280547 -0.039836194034656866036 0.056026655082097788496 0.16731976745107937643 0.039798471509818959813 -0.31002500421215511972 -0.082328113494171462072 -0.037308751441142692928 0.32188565228195947787 0.11413532562282620308 0.089093690414558446289 -0.021238111542682392568 -0.017921386273892343788 0.27541498633556255049 -0.005621142197721092082 1.5634934235281916504 0.25675530054514295042 -0.29201243762888651201 -0.031874211448906765443;-0.16093892864554074085 0.12302768215835256649 0.11759023583579730765 -0.061517325397816978449 0.14870397092542420037 -0.28553529348178624536 0.27753917084311474639 0.1325566433821541712 0.065759566854411269365 0.033739055403276034528 -0.052388428782159830732 0.028883789047699150176 -0.35249790516466333878 0.19152211388366247036 0.54814482073324655165 0.18778087220649805622 0.00047766144599229435784 0.07564910594971265001 -0.082600615154219403369 -0.050020961077654337024 0.057123102092660270335 -0.067261732928637130158 -0.39193155499022630517 -0.078177824468395634705 -0.0042845725493462242725 -0.43344062381641329518 0.096096413834817262511 0.27586210788731968524 0.014455917937249641164 -0.52897115105936443058 -0.052561959098573633742 0.18468350979247832866 0.027382299415469827514 -0.0044978494726655837005 -0.066464160651830819782 -0.062893828583658578646 0.22215463456995818148 -0.017423190574362090732 0.094730291110638659147 -0.14951927266072417844 -0.031717561133403120166 0.25097622006941672224 0.031433090280500099178 0.10506819483536743165 -0.058879927168917947644 -0.18542407705152888497 -0.24589590433375660417 -0.22701274758504610962 0.316994178782825764 -0.070475391979478704818;-0.071096010954001323534 0.15891567578289017559 0.16350728475535694639 -0.062994647222082714166 -0.20256543894058903765 0.23406766088557590111 0.00063021626006120787765 0.050482464110762376164 -0.80624920081108042424 -0.0088669891768640395069 -0.086501138639817232168 0.00018265636922672103676 -0.23178547556682790876 -0.20910357313306851545 -0.017672761154093878655 0.03966298119877226247 0.024351666968307528888 0.021935980246454891973 0.028005758497958208042 0.14019708818156029206 0.039919798581857401931 0.016766541589154429492 0.304922280633765308 0.020593010147168633317 -0.026940325645122935316 0.07142535503759506188 -0.018676665526910812137 -0.35322002083589193466 -0.036712337112848714149 -0.49466561544346832058 -0.10137784268624255857 0.064075121301855303413 -0.050435401556296367842 -0.039418415829817927964 -0.0082823312003730484299 0.13009181649524659274 -0.090661487737431281642 -0.018183738999072444203 0.022718326286340906339 -0.078910223464332282517 -0.042149370916523390407 -0.058628097993258292131 -0.17724148333933609223 0.038491055802845633438 -0.13897000286797345225 0.032240560449132295295 0.33947719995154584938 -0.0049431281267077369426 0.097694643328642888358 0.0026038960866088898399];

% Output 1
y1_step1.ymin = -1;
y1_step1.gain = [0.0281842465184436;0.00729722785032899;0.0126984651532326;0.103560951631583;0.124029264191231;0.0540582093560754];
y1_step1.xoffset = [-35.2200531879;-128.1898678221;-82.5741622125;-8.4762545625;-8.6118746355;-18.2951478477];

% ===== SIMULATION ========

% Dimensions
Q = size(x1,1); % samples

% Input 1
x1 = x1';
xp1 = mapminmax_apply(x1,x1_step1);

% Layer 1
a1 = tansig_apply(repmat(b1,1,Q) + IW1_1*xp1);

% Layer 2
a2 = repmat(b2,1,Q) + LW2_1*a1;

% Output 1
y1 = mapminmax_reverse(a2,y1_step1);
y1 = y1';
end

% ===== MODULE FUNCTIONS ========

% Map Minimum and Maximum Input Processing Function
function y = mapminmax_apply(x,settings)
y = bsxfun(@minus,x,settings.xoffset);
y = bsxfun(@times,y,settings.gain);
y = bsxfun(@plus,y,settings.ymin);
end

% Sigmoid Symmetric Transfer Function
function a = tansig_apply(n,~)
a = 2 ./ (1 + exp(-2*n)) - 1;
end

% Map Minimum and Maximum Output Reverse-Processing Function
function x = mapminmax_reverse(y,settings)
x = bsxfun(@minus,y,settings.ymin);
x = bsxfun(@rdivide,x,settings.gain);
x = bsxfun(@plus,x,settings.xoffset);
end
