function [y1] = NNFunc0311(x1)
%MYNEURALNETWORKFUNCTION neural network simulation function.
%
% Generated by Neural Network Toolbox function genFunction, 11-Mar-2019 16:03:37.
%
% [y1] = myNeuralNetworkFunction(x1) takes these arguments:
%   x = Qx18 matrix, input #1
% and returns:
%   y = Qx6 matrix, output #1
% where Q is the number of samples.

%#ok<*RPMT0>

% ===== NEURAL NETWORK CONSTANTS =====

% Input 1
x1_step1.xoffset = [-1.18641031148355;-2.89349679103339;-1.64946263179794;-3.0693646036015;-1.55291680056139;-1.55784058620265;-0.512876796208933;-0.430793369988685;-0.525940770257399;-0.523336967703896;-0.49262187541306;-0.496679754873831;-0.295407913679627;-0.368600197612698;-0.430706747238319;-0.415414314024038;-0.256783598292373;-0.240118207107307];
x1_step1.gain = [0.768995988806481;0.819662030341616;0.599322147936395;0.611610622674186;0.702492886458956;0.632294930659554;2.16042533977327;2.08712436488118;1.90077611714056;1.90593401506704;2.0218259302226;1.97717359475643;3.49583559986665;3.13454156530625;2.62085431792219;3.16001203253564;4.12826440223096;3.82349489940227];
x1_step1.ymin = -1;

% Layer 1
b1 = [-1.5410323478077359027;0.44307927900226357076;5.6230782853352909711;2.9405372987203346469;-0.27020978131124528954;0.20949050685525352766;-5.1668054515215180444;1.9011189475655607684;1.4674132625565692312;-0.50323541822949391378;-1.9250551816353342893;0.53044191631309478563;-0.48956835961793632173;0.12365330372287119953;2.5789862861820100903;1.1185377349401892655;-0.95554390247729870111;-0.3755130605984207115;1.80826900027029569;-2.7106932889923047725;0.21756355258136483855;-1.3992452699703017416;0.58403169154762657467;1.5104689399049782139;-0.45438581639234071341;0.3014279367354747996;-1.4895913039516239795;-0.19898427627842518728;0.46636185123449058754;-0.979434380846883057;2.5070773427852732773;0.18385257375005234493;1.1223785181116803233;-1.5755742514059321024;1.3745381852070026607;0.24854876073731629882;0.22785436860501143141;-0.34300904193954911969;1.1053770479949036609;1.24230802073656732;-2.1745883684203497488;-0.81351582901522800917;-1.4118822546472566959;-0.86704912847908355289;0.65161784288042867708;-0.71730991450111525332;-2.569011141344606397;-0.2460627885279637328;0.16164933352756780116;1.1097212893309347237;2.5859959193373804887;2.5867848407886162576;1.3614902765946295116;2.1510001683281503304;0.80990466163946361888;-1.932433543071951032;0.49212421590743982147;0.20931799881277246556;-2.1927658192612637933;1.5343886778214947952];
IW1_1 = [-1.8133691905731421645 2.7514741658773433919 0.30982876761771882546 -5.7071537987951810322 1.0767116826403784202 0.81313459878312610574 3.6803887375002668492 -2.4286930333252327863 -1.3875254282856641641 1.6513122786076759319 1.6608192331525493124 -1.0559296964288304999 -0.28685832960543528047 -0.04012029152281051253 -0.014113857856740573068 -1.2031000849398687524 -0.46162452531377762277 0.2312015777231455349;0.71116300906286222805 2.1699627054052816888 -0.15788645361424996638 0.33649678327450549542 -0.32301106007456831248 -0.27010661506511174368 -0.50657173893529805486 -1.1397847308722230952 2.2866450537855453895 -0.86742187546511395624 1.4100421570889540845 -0.29473040580232284791 -0.36907614717127584791 -0.067810216585225610575 -0.11628880544290928767 0.26470885154658746474 -0.15360215526067985681 0.14474549767449956805;-2.1906361741451956249 -3.8394594296680870649 4.8499799875273987837 -2.8359210631699522942 1.0323266965989867927 0.34516670970551788233 -1.9340101502358277852 -0.26262650941645182545 1.0342792316442692702 2.5193044637549992792 -0.50237256474944302909 0.58506034938112638777 0.12914264288993040908 0.062325318995373170383 0.1964657131553521896 0.61533438374656568293 -0.33848750713695574532 0.9307841875425360012;-1.9088466287919989561 -0.77636991503048902175 2.193661966382361328 -1.1396702492558712372 2.1146005228053303959 2.0342211043795899172 2.1913629239471332788 3.1238612685576474526 -1.8114554650125929136 2.1857804578468860157 -3.5249581177718645186 -0.029594508383553694286 -0.15480572257783439816 0.55994580329582210876 -0.44834514230279559621 -1.4201026505426324054 -1.3027628387364345031 2.3156233825945760074;-2.2718733822750341034 0.40987872901158983741 1.8759749033891481851 -5.0143064089745399414 4.7558438666194753353 1.7555143770371350875 1.9713034548170964566 0.62973175265319292215 -3.6060008588411140984 0.8583827193205589845 0.95009758663048393679 -3.0294193580427348778 0.37646083403828045633 -0.17004844816845296473 -0.12763411790480394536 -0.44798217374467091956 -0.30301912372185396682 0.70297378166673962774;0.48753056928243881929 0.355486162089002522 2.3997534953490955445 -1.1535198418687058197 0.060028285343115161954 0.40748217097177635848 0.72336386905835659 -2.0129832589001916965 -2.2283008941145623361 -1.847153459179975421 0.34180077030356187384 2.4661001143720842066 -0.32915003515452023741 -0.0024021907978204752772 -0.08850234279594296205 0.94267395516686813828 0.68272415829869548265 -0.36388926724011810832;1.2915684818521062649 2.3469223734202642184 0.62349275632560074989 -0.63621105474560735171 -2.0301929811228371925 -0.072791314525662342838 -1.1865898158445660204 0.18646656119240134775 1.4920628003842313358 -0.92994880559672765674 0.53592210290261899086 -3.3298169593008224432 -0.074997966442191490999 0.019071415117899694763 -0.29176010996220030913 -0.18668988187727691974 0.099252720063917068694 -0.52862593994761430949;0.11910230320425577166 0.69440852694983035143 -1.0090922013076228936 1.580064902041258712 -4.0715844507361733662 1.5108911494132482023 -4.3282703900484991166 2.5596780351153669564 0.4973842240128342751 -0.45919762046894935237 1.7715009133711610012 0.22852378442605009168 -0.37009224298364612471 0.17660319392973441999 -0.10988396850919185388 -0.11556774798965928353 -0.48902673419631836893 -0.35938093958285832752;2.711570105063147551 1.472002291218036607 -1.7924749110391737794 -0.07229413962185579634 -0.98697178809246444153 -1.1342537571458257695 -2.6736709813163659355 -1.0238409205993472817 -0.039030453989645351454 -0.7766211371732602009 0.31441319129347722328 2.3322441519402903332 -0.13765782065729045835 -0.40383731020994423355 0.066487219665751079445 0.45686934094008674334 0.075277642696016403012 0.13680490062926289885;-0.38155994316212771267 0.85218071959699626117 -0.40820142839213013897 -0.0020000566117531711798 3.1056553699299009885 1.262529272761762078 -0.20007598216790059564 2.1254853695882829356 -1.5701873078304902087 0.33191930608903763567 0.2698292919323657113 0.93519717673075830611 0.29494245145721903478 -0.011285754747615875729 0.082954286606301427809 0.18065981149428583796 -0.28862526430171497882 -0.32995994614623286312;-5.4932751207386170123 2.6230342112575306679 -0.28576984494678137061 -0.8515527593340105339 -1.9377857987173237042 8.0138292453106991786 4.0808415349210696021 -5.1203129820236172876 1.1883490856702778604 2.8500418844591286494 6.4093209722591426569 -2.4838928899046885945 -1.4786111556644128129 -0.19683177492110703888 -1.3189499230695143073 -0.042330775275854576334 -0.64592523766585385747 -0.021774390082098665777;0.66673695426693202482 1.2871582770988270195 -0.40781747598719475523 -1.4074770655052548651 0.7739779519203621172 -0.36904891715506121797 2.4702542281375321487 0.39674440385320153268 -0.78651841250631759905 0.93969172423652391757 0.032554981992375740807 -3.5635526917115614154 0.12794376806607651864 0.030994098716195024601 -0.086877103899455201952 -0.42437280616271016997 0.021009755422155437093 -0.14901930007956382118;0.17643007580079278496 -1.8865675384044875429 -1.5679248601784414596 -0.11705823489852423824 1.9182271648008306641 -0.61718361583899705725 2.8136942419241677271 1.4479811249889575908 -3.3597441837208981141 1.7076560981886561574 -0.51655805829778289606 -0.84123300299275061143 -0.83051432622745069434 0.059618267146617921759 -0.051803654705120168178 -0.0707723608567591006 0.33820053728498372658 1.1160961727253844167;1.5321774297137238374 -0.44255458636147049223 1.3580814660306070873 -0.62564588363675976979 1.9937116998925474842 0.86951165409107511461 0.21308762358004731952 1.2171485968068220807 -0.79870250343964788176 1.7606029064603954115 -5.2187762164333975079 -1.3691061471054524201 0.048984830193421514954 -0.2437385448488113282 0.049994618018783763824 1.0150404841477158602 -0.55569046802285615438 1.0054096333763771209;-4.3410134056073079734 -1.8765546769532732707 -0.26712668317012477903 3.0332827402382811499 0.32236024415060698933 -0.46197439388619032652 2.4892660036151634806 -0.86984368078228957444 0.85982217240289460225 0.88192522122732797119 -1.6872843751035524473 1.9021644414168012993 -0.59356627382132909343 0.20638044755870127434 0.29386350673759953356 0.13181685564380829501 -1.050143313586356042 1.5397285891384118184;0.53812277336151903562 0.91786971179326060088 -0.0012155525605258210228 -0.26000200091048991657 -1.5722374713220774733 0.80521591399181480231 1.6022399765808381655 1.2856592454385571411 -0.10623175379361687876 -2.4276022124182001782 -1.4671952690613836445 0.049121230490730874441 0.27984744216943951978 -0.038206837640712087989 0.10716566364081672735 0.1508387243966169966 0.18360620992776408023 -0.24610408110301587592;3.0611315215869852047 -2.8296876996667714721 1.034764489280337596 2.1666773125401270761 0.13213267375800974435 1.4092383950993609965 -4.661599161862524987 -0.26489133746719184526 0.7724506173320850877 -0.31444872964372316826 0.073393360012221242616 2.4354584502185208095 0.97166369023620802192 -0.045085911797565512982 0.23389379759299377959 0.19861925171791885991 -0.19229445416885515563 -0.42668291382036216408;-0.72019522045312267533 0.9328756188753523082 -1.1453590775754745046 -2.9816172727908503148 2.6552796125069293431 0.42148703624014993707 -1.444774012831090193 0.49393629928568688614 -0.58041272006968169794 3.4630292429311477775 -1.1006509348984674368 -2.4009935877494146261 0.023955384006655991436 -0.10409973477263941011 -0.052980309880408478496 -0.83632028668568381136 -0.039984780897962861335 1.3212890447052447751;-2.4744090013207014067 6.6419051938221862486 0.48681224827331753824 -8.8428974468615333393 2.7019188302176631034 -0.46020558961901930628 -0.017271443755252063185 -1.0725205451328692074 -2.126101824389460937 2.9557542446700657557 -0.38688231134359130081 -4.6581623374521878844 0.43241456278223316945 0.11913055599322512623 -0.18371510674594218604 -0.70261361425870982877 0.3322971310786396737 -0.061021470447030642936;0.016452220384411891246 -2.3463490585737716287 2.3452894503692349737 -1.727769149236381363 0.72822743844763371257 -4.0816646531104936457 1.3313840639235989816 0.76836162560028464785 0.71678550602667812086 -3.4568495880054643798 -0.28241699440554041134 -1.1848111390415685396 -0.24374707145487181648 -0.1035812957976708637 0.5930388963208486075 -1.4269907717976568762 -0.61133677434969924125 0.11809261665615566894;-1.5673088362513947214 -0.083993787545330544919 2.6289026622887390339 -2.3050935926572098111 -0.10725163669126211441 0.7831322194817726956 -2.552217272649330404 -0.22664380442478496147 0.75678301762114508211 0.2467207085222988816 0.59862844251773195126 -1.4556245148089770325 -0.51465428459044915144 0.21705043341881066765 0.14756521124222146679 -0.93779311771759121807 0.97502792292715600997 -0.32653677487968862936;1.3163214450651334886 -0.84313319777570372437 1.2570783984751099371 -1.1672433804316386663 0.54768433421552586982 0.6188179043410003688 0.52835486710006829281 1.2893107508584151777 -1.9663240234893060165 -4.8780446409744078196 -0.8057724758155497824 2.6772369160213220773 -0.34494808399039739166 -0.20928704248561694201 0.60975576914720930333 0.5658187304644393123 1.8493272477010587185 -0.22693428944565124938;2.3281937261470355693 -0.85583695700389250671 0.69412487562559921361 0.18083878903838210284 0.86696566604193980865 -3.4299296535073708903 3.6797420193264320787 -0.39696348461852121181 -2.6190682839304484375 -2.6390183701874554423 0.70579218497604212512 -0.86107109066234188699 -0.49268024874171095773 -0.17847613894227637443 0.0002334751747688944756 0.92566253246207552685 -0.076892096824779682107 0.0018949360787508381584;1.0663874121506198289 -0.31509764169023085634 2.0631598578668652877 -2.5786750090433212534 3.03707040433831299 2.6613974718816750809 -1.4285096468872648945 3.9671820004537492466 -0.24892470214505915682 0.20021289597873406785 -0.57737820813599172176 -0.057156301799614943338 0.05950173345822208637 -0.16225148591379640051 -0.16466025386647209494 -0.93043606099915221463 -0.42936112515840374471 -1.2945303234673999349;0.94616741557488148739 -3.3076005325083714936 2.5059684013373737521 0.53462303583561565645 1.8861138469732194878 -3.9983771421983131944 -1.2321122425085500041 -0.67772394920681233721 0.47132831369844940816 -1.0073988477554647325 1.3623244327911221419 1.7589312235381984184 -0.20692004066922270455 -0.25236872297350010363 0.0059012421776659627903 0.11882127483402360468 0.31909106546889487444 -0.3805456697748524908;0.1206381369902785744 2.4668985760512343042 3.9906217025144443689 -3.8665542635575560482 0.95442742605522412624 -0.43976244284744708812 -1.3651901471458653958 -1.0300217610706468019 1.9238876417309782596 3.1367957436188174114 -0.68223487059408494115 2.0960283602996723218 0.024363867008008674442 0.059222443349265199708 -0.33499300319069924559 -0.13608904526901419163 -0.20518997946259920351 1.3169192764782138294;-1.3416752343663644886 1.4510495628804953583 -0.96455678251911292076 -1.2336785673656780471 0.80812586297249378031 -0.70557369449527040928 3.6732174179204393205 -0.010126576761912342226 1.52397251232437414 -1.1376718447435461012 2.843408108399951395 -6.0170404543476649906 0.47093588215563852994 0.22828312124802480065 -0.010112343284668262253 -0.67997296513490235181 -0.30545070540118007818 0.25857813829163117658;-2.4829332049110637293 0.06449904948920441583 0.91631318856043952881 4.5694840598902226603 -0.69349104342981138238 3.9372327627805145944 0.31090232347355822862 -0.55408380987533123463 -2.1442164944636572521 1.5929610115771271062 0.18835779897986118514 2.9008911663494236777 0.29939677014666504773 0.48667825729626695841 -0.10351624429723692289 0.29165081456718966457 0.37496373424346585157 -1.206094415236587114;-0.67782939754014037703 -0.16198177301182481447 -0.7768552188462145569 0.50031676903248911703 -0.89534593763138636824 -1.7726513263855359082 -0.68110751272872915862 0.30184139497719408851 3.1970846718429792865 -0.80273881834398097546 0.67081159549229663064 0.55003238800870279945 -0.50328482411525732321 0.14870863327039665625 0.34396014310525468982 -0.50239820497978848746 -0.52364820371305009772 -0.4847807077217733962;-2.4169211016736387165 0.99992596635719444009 3.2298558203545488787 -2.6860950496470326065 0.11430287494530820547 3.2941036811650517002 0.69777678475144144787 -2.5700868335921449592 0.96273697576491923389 -0.34458936108116849928 4.173656648512918288 -0.56428366644827943066 -0.3064375128975043161 0.19497315895220287962 0.22278887357020327187 0.47469310438298517596 -0.60239870048570065553 0.029354449270680496586;1.9584759556397290936 0.24860520186737095072 0.65253595625989468942 1.8216576553501799829 0.50656487341873557284 -0.77889845831172266344 -1.2881478207525587365 -0.037533163742736797008 -1.0474438761217494953 3.1755033995567023553 -3.0902518627084858416 1.4059224121455973222 0.55024414056117787464 0.16084987260441374612 -0.12499693488444618694 -1.9340777014537418044 -0.67155699781802202786 0.59606590087097455211;-0.96171952261634474635 -1.2847556773473012282 0.2607194927334576251 0.82171089712279710149 0.47425849215717236218 -0.040089356820995916686 0.88124742154677881967 -0.51193967360559711199 0.48930743072310084463 2.6546959753555410266 1.4525231582572861733 0.8068142648541212214 -0.20678468699783356111 -0.096121371552883666523 -0.35867956479950385829 0.18708991456300380629 -0.54983766648375698161 -0.72518369877205868246;-0.36888212831140010373 -1.0423086504827181464 0.98550855931153236167 -1.7666776971778661576 1.7240224741521728014 -0.65965217675668275099 -1.6574996634137828533 1.1397785293022983932 1.0481197179729990765 0.99031667759666264228 -0.55766166706130815278 1.7907859039580813487 0.048158778025296590519 0.15915181207543016573 0.20272191715956078273 0.68832267124060175778 0.30495086534469195705 -0.60460117267853452638;-0.44581629811591455548 -1.0606571499768739919 2.2308482393163204804 -0.11782469916698293244 -0.54875463497748466768 -3.6776975270147760355 1.1292474710453797027 -0.72137445137864064648 1.0213261885090711978 -3.1442400051467664923 1.2717417019829950764 1.1252431264038467162 0.073857257498981532251 0.053173741277723750309 0.25718077414061740749 -0.24597380055233272755 -1.662337894538495453 -1.2081420845453705315;-0.79059547415348763177 0.86024930443170621874 3.1201751732416767027 0.72071472208094777834 -2.1068067133703851646 1.8768695073546639573 -1.5573822023126862035 1.1954185186745853731 1.0643282298243195161 -2.3410491474838335257 2.46427584397939059 3.3566252116464041499 0.15570778711129895644 0.099026333154005621862 0.42110568231409806206 -0.54753088182958131735 1.2975402185946540712 -1.3997337660089621547;1.5699837289319162892 -0.041602721754065700999 0.010408646055907602029 -1.2751274955080413864 -3.1035335727834323372 -2.4923397274507310684 -0.96778973200446127834 -0.68585272759531956677 2.0010114828640817031 1.0001810492684073406 2.0662860204932487207 1.3912341361162900988 -0.43308364719225611594 0.45057212271560631578 0.13309808465588063298 -0.30165258120490517912 0.30866345227269492701 -0.15766989736012898549;-0.81204402586757995497 -2.148650128340210852 -3.4374127919324015679 2.394103424701110594 5.4070381572268733095 -3.4112501747502887994 -2.138252572766713655 2.2014877738404581287 -0.090579009647740446609 4.336170496434861299 -3.1902852320464210045 -1.5211770706763623195 -0.70024867815100677593 0.50301440645259365425 0.6443141044760180014 0.98673020516458243012 1.7523246158804159922 -0.75395229937600660719;1.7898583035905162308 -0.90536279110243422785 -0.29893337265940095326 0.40794431432863814679 1.5319061272984886291 1.0779669927490733716 0.016807866105243766258 -3.6323059628501281892 4.3902086104922357634 0.5703050308295826154 0.73857213894977902235 -0.13226757884755149797 -0.082457042891229515025 0.24719957165785719222 -0.023522522694771313967 0.97232897033112253293 0.12375592093490012102 -2.3430987989730645005;-2.2845308365804593009 -0.7778484482202403516 -2.6924292337385842266 2.27585902453490041 -0.65453502698200838328 -0.1462511248002957287 2.5615460090043864483 0.36447333951511118322 0.063661710737471829957 -4.4314000574996237347 3.5937520954941821749 0.070606524681151625056 -0.1739427322426876088 -0.016731265264673243764 -0.78694527765566302246 -0.76433980556589775635 -0.56867414647790970328 0.89075488737316144139;-3.6859776132177950458 -0.51342657239571432015 2.1425608942113174571 1.346130886467277632 -0.61081218412307236587 0.97021490069344551443 -0.24445191024263857038 -0.51335752512137156067 0.66772940553875104186 -2.0980757979068194174 1.636359033023252918 0.31852663619189497402 -0.28419990415488588509 -0.0091919164663568937029 0.42219095041311915928 -0.028649523805062252629 0.15842075492835386297 0.4967529321786515184;-0.58853088435324640848 -2.7826927269307604185 2.1126760139349234358 4.3294401662674273368 2.0052507524146445661 -1.3493703833549486326 -6.4857934409378925622 0.031177917113294453116 4.071150634486690123 3.6160260860019515228 -1.8666504724911725521 3.0100794491869415914 -0.075758067999683015303 0.089609920851439317513 0.16663140945038459884 0.45355800032117954412 0.25591156001552961552 -1.021277487686944152;-3.6603944110694675018 3.9709320747737071322 -1.741094206415010337 -1.4025935070045332242 0.62593643743972382509 -1.1640712286562302502 -3.1101123966333941162 3.9146324297981607288 -0.60818127978099290054 -0.88917741141277018002 5.167824727346006064 -1.3831579889356131474 -0.72519613546523831182 0.19892918855760374774 0.20031352059873860916 -0.62854030165664198648 -0.42177838606316958581 -0.25417943129663073121;-0.20209339892959521379 -0.55798936223101569531 -1.5018886440138718985 -1.6493740280224937766 0.75029514732713831204 -2.5634495390471498943 -2.5731201920365269764 -0.32805545187076545766 -1.1174162800346858493 0.70016583644993435342 0.57409822462769077855 -0.47452654741785410542 0.096771932054852016769 -0.068732755485339275259 -0.065629719970136737861 0.33820971712635972128 0.31809953075226859998 -0.031886730114709382899;2.1283551879241029425 1.514959066794775655 -3.4964200496631958615 -1.6897086960949063705 -0.31103373215459395595 -0.70555401307930420973 0.017958006106298878002 -0.24555975276279290442 2.2330541089259687837 0.70151324195117525928 -1.925560928050273457 -1.5599130268390146714 0.076344628265098565811 -0.051367715677779986205 -0.40564027428246651752 -0.65780133662773732084 -0.1940818862633635622 1.3566595697934515918;0.081495446283932182485 0.86028610407077332756 -1.7571144148984605415 0.45325584530738222133 -0.028786653041005361153 2.2646618606152832953 0.31819075679160085945 2.4348086818760701355 -2.2030135361668437 -1.6533925567358136455 2.013629698800554646 -2.8678358282849600869 -0.06334052959733028898 -0.13111335026292206263 0.091121712966289958313 1.2670101443271102326 1.0060828878003147402 0.45174993059690599084;-1.37523913665230757 -2.9402114988423670994 -0.11587788259931973422 2.5973869376177920465 -1.7511255640392340283 2.9891625837189725878 1.3705435167619794967 0.65016309905706515249 -1.1374779564226826789 -1.6841247123780940242 -1.7464302564400306927 -0.26107575970038082724 0.33599495748486174485 0.17522923690744579561 0.19694100918959422941 0.09903942605575437319 0.042817150158245761982 0.74768005116570490642;-1.2637394836512898522 3.3181011916827962693 0.14039397887919707886 1.1561830181421230979 -0.38561854913423837532 -2.8035974890925898784 3.5669310579400761441 0.38224489293738916906 2.4903912720393721614 -1.0015275344275331726 0.13596873622988261965 -2.8624257029310555822 0.66649299127564876066 -0.23041652196182307866 0.12329328923230351012 -0.3673772466658674074 -0.35207714775265758211 -0.91411668673800328122;0.11816869457972727087 -0.81528277967887941013 -1.8205800510221845645 0.29875905363429194894 -0.064898049415963679487 0.20270830475180601216 0.85120629444350948134 0.87536472665347198063 -1.0099729835406865419 1.0952399259689136191 -1.0940256243997326102 -0.78120035363542061901 0.15730235383224913659 -0.070195784078375261794 0.12386876169593122321 -0.041649929337288782438 0.93179200039136811373 -0.67111841056804144579;0.2335797757608304992 0.12500048492551396606 -1.2429656260835457715 0.44448947311663605797 0.64675748047379066907 -0.084031954489259111374 0.34436617280333808866 1.1216133495267059939 -0.24116709275061454232 -1.43671075949939131 0.15972963578509505322 -0.21006778965083405808 -0.23728373361468174663 -0.060969239380437155462 0.29509540646300047584 -0.044006243039315093291 0.89307397966599111339 -0.30606244251442504822;-0.59091683292325958288 0.57701107703980447639 -1.303840010449027087 1.4662253698327085694 0.94354991791296927151 -2.3673344282784065662 0.10130434407106597705 0.89581357808005734888 1.02155446008308326 0.43609388426321094023 -0.88515483281129225812 0.23556721840752747887 0.18742160038911892528 0.043077153418840032073 -0.227955376110695912 0.28844256166227627558 -1.0515514940758377005 1.2981503610501441415;0.085405602124085738813 2.199170454348756909 0.084647111428357929563 -1.1742429074110944942 -0.3060060613813325725 -4.0014736892687157166 -1.4815271070684468135 0.41551144819343305281 -0.53816237621709017702 0.55696489404639670795 0.31178777204434360293 2.8468713220785555329 -0.01270561946733351523 0.02592597993397348366 0.074876839569488429227 0.47718720275482029436 0.2771261898786153699 -0.14566652529731533017;0.55678393836649420212 -0.45380575505741016507 -1.7719766127950109524 2.4445344918153479874 -0.68640070906425365571 1.7061995627526955754 -0.41485009646157922081 -0.84590246561131410274 0.51977736331463164632 5.032956115495883509 -1.0828489694846950009 -1.3484383086760862724 -0.46926334435100242048 0.16080706872479694214 -0.25583030527817318678 -1.8719369779059071845 -1.0616697987692511607 -0.91805136659150610168;0.6490842735747015535 1.7767669569433126586 1.3835061075018910692 2.0283945981800126646 -1.1821567484803361392 3.5588877491071397863 4.7608527287689259566 -0.31779964272414273907 -2.4912016748555658729 -0.86964043340601637766 -0.06775306634015718088 0.37456811693662583895 0.23696221342091144946 0.34766996272727573869 0.047050527012586301767 0.57740956873332793808 -0.15718564508332544261 0.59912372743672548392;-0.10947851629964330811 -0.82890776890094097773 1.7380085168124290718 -0.39594126196236323345 1.3726704959912217063 1.4647039515854889391 0.024385147848165256157 -0.67110424727821227364 1.3912256937606322094 0.17345893824711294817 1.3962404697180696989 0.72718655680794819229 -0.57037824797828751144 0.49922280191804885296 -0.7857547163282089242 -0.79335627269625086377 1.0241493292694727746 1.226898825375904778;-0.9150601312153981981 -0.31616043787410907928 -1.0444395063884788222 -2.5688366539712821357 3.0761363337939271467 6.3193972775838780365 -2.1416885149359545792 -0.39349391099651276349 -2.1202524930212636178 1.4282442332462164103 -2.7227857938886219635 1.3085460638479289308 0.15388853623832213224 -0.29700415279730119078 0.6986567896537003719 2.1703681569789097239 0.089063398331668569563 -0.81738225140093112575;1.1796360596416690658 1.8495162426781297516 1.8910943890734410733 -1.3585638196888916163 -0.58631947030429365508 0.29565327257086310153 -0.85390383653541956921 -0.2578403982596660371 0.28403941841033369942 0.10213433834773588682 -0.40750202238931726439 -0.5646733260572530666 -0.35900143725504551906 -0.017816335109570015371 0.045219244443706702041 -0.078417006489716986617 -0.14918180449325776915 0.15921630578307144344;2.7813265264879918348 -1.793559051638246693 -2.3849695260755985338 -0.31443281479418544455 1.8207369080555573237 -2.3416743187705963969 -1.0591043645825066744 1.1117834390410421541 -1.04816154223221214 2.5225517813508431253 -2.00868751973951154 -1.9036200235911775458 0.4731648109663297852 0.21370320311693255522 -0.19566797372022792789 -0.16755132462377633762 -0.42550086277588228256 0.48617457012201475974;0.82186935310696906942 -1.2537668200920470962 1.5937758142052080856 -0.51504099520054169581 0.84442605998905095888 -0.67941995168919577797 1.8210162152864801666 0.010517580665061348338 -1.2582171675534628008 -2.3179110392577224609 0.77459143896137572227 0.93913897547788516285 -0.29719061405295787992 0.04477766144495387568 -0.020116794199235215473 -0.20421531993092814639 0.0094344996298143871116 -0.47023455758151216921;-1.0553573391823594108 -0.20675700753006337473 0.42520061191484043173 -0.94686086175453199054 2.0743795071593242874 -1.4991631882654707919 -2.4705690240843671823 -2.1526852629842534448 2.4460277006709820746 1.8863276301445091043 1.7036790480635475298 -2.8954010889269126139 0.17607657254102931921 0.036203420244297235264 -0.096978446482275548757 -0.4639532647358937667 0.18007046697493331311 0.15815199207489888389;-1.6417571115712159546 1.0659236046194300318 3.0224504032617063309 1.7295163406838707232 0.085022357623590436027 1.6264988854289272879 2.9462799363466580793 1.9957572486745127627 1.7687300271743398028 0.91343663107425165926 -1.1349726868783334144 -0.8158261009763293492 0.36836552207349804178 -0.11823168101162699617 0.38794936264715529362 -0.19062230730901852382 1.8644600593303011227 -0.63870573553305776127];

% Layer 2
b2 = [-3.3257959481850312145;-1.1505129530898277057;1.2867712041057486339;3.0006458122729866567;-2.095268902765460961;6.3182567165578982227];
LW2_1 = [1.46414334536013091 3.355949847677440534 -0.97891682674223978733 0.042398346340403944565 0.23558899108392025723 -1.1254033446153202114 -1.3576724244696911637 -0.88268762582485471579 -0.81046885066484986027 -0.2291381228560858685 -0.22328744299114605676 0.1080299192871144176 -0.51194547726977268631 -0.092545743716694217618 1.0308511202848071875 1.7998049017062689447 1.0044952372852318234 -0.53834485389027042501 -0.66398658683919331569 -0.33523199550064408658 -1.1414655773353015178 0.69552289594839145082 1.3820673811674359932 -1.2666432954068755912 1.4255006394742701925 0.4886525915835503997 1.3362748495743095312 0.75790647664810528727 -0.30498108644870386419 -0.7775106859226931233 0.17569038047051344087 0.12611124677756763157 0.23014504563871801546 0.5174337619195998883 -0.024903911559843144863 -0.42620028837337148309 0.53771977840412477079 0.14653100549891764914 -0.39995977817750921757 1.2811209384481232476 -2.3097833285816222748 -0.039579738613809645198 -1.3251351264369071181 -1.5425147317202263508 0.42499908250853912772 -2.0853208229809681029 -0.29924664536531003778 1.4232662813221768072 -1.7811368167645522664 0.36584899429948436467 -1.5407877469822177652 -0.24251844246047044029 0.44439884207830221419 -0.29686661460043517469 -0.16015885675059890469 -2.2356095758933238749 1.5184853592432061564 1.2172787312242634439 2.5399419599344952303 0.58086066209823861151;0.80789486042824776302 0.14460581822718229783 -0.10539602347406581972 -0.2858205948995925505 0.29697106644995879821 -0.78695530344398101352 -1.3145807890314689104 -0.84493361602064243066 -0.66706645873840242356 -0.030338691118868364033 -0.00052021805576001100072 -0.34343664737057533198 0.029537990897867846124 0.35729030880527562486 0.23695415527551058621 -0.78542149630806223914 0.16005347828180560565 0.7859329213244646839 0.17362118919164812314 -0.52250285097219895114 -0.015831682982738595061 0.062663587389647931736 0.25212674610995255975 -0.04325633079420206778 0.17943376589732912274 -0.73331240469764313872 -0.23223758681105050039 0.46003388611439216538 0.0024171859550723637233 0.65639749524924073665 -0.152342916671735773 -0.5833081991336093175 0.36869878848573084396 0.42278655324691122308 0.61872329034351591925 -0.21976081441254263771 0.50032978850210885202 0.057154895033425343054 -0.83830750316992908022 -1.1465478657893546366 0.1957329402237616145 0.062513324446648338428 -0.24575295315666420559 1.2118700307685732476 0.68816158677001659782 0.39709620851158361488 -0.069142005698509229061 0.44240130669633298544 -0.63320541512955486052 0.84761804718766808886 0.41050567346597827134 0.069153082420725583979 -0.94756713815649284971 0.14020976780341934398 -0.4557406914325117242 -1.6109435855506994972 0.78213778898664865213 1.9878348431445980182 0.36087062886387533123 -0.16869461142511457674;1.7940837523162798117 -0.79395064119483227394 -1.0531822843940086276 -0.53849416185899423581 -1.5084702416775113143 -0.37842970831421057776 -2.537917429151860027 0.52243965484800980459 0.0050935269914806589886 -3.0553585118808808119 0.08830392759712274442 0.57332110582374251617 -1.6305816796116001655 -0.26128109630142004605 0.84372759784106132752 1.9790927291806166277 -0.1958433490724927617 0.59952683438304621433 -0.5291669695167007248 -0.25714686140308928852 -0.17976154290496310084 -0.21563668738238439548 0.96209090349887671501 -0.069069524892798855875 1.2654096232034728331 0.24469744780455293665 -0.068881570470011060925 1.0582879343875644107 1.424672499801011627 -0.66228418085734497289 -0.64730744801869011251 -0.47619578568813886177 -0.55067746120131910725 0.40066993217385443726 -0.39145675172829524913 -1.0105949955205411062 0.19250333751787304659 -0.47215980275354468843 -0.10324951089349182487 -0.75691396785277875736 1.4702550374313421155 0.17484544391438661126 -1.437634634187764604 -0.73931991897763571497 0.89518028276122973974 0.17646677821456288604 -0.70149560336046556941 -0.93474410834236698609 1.4129411432906948676 0.50428734063128710652 -0.54762189868365995782 -0.42681196334531312786 0.15981055525385445826 -1.1566277496895671639 -0.14784909063256329587 0.23341181857634099583 1.4609513571858701031 -1.2755710930556884986 1.4249747675487545173 0.33836762585565854922;0.080471281348836673497 0.68863475529973194877 -2.8403318605907963423 0.20463240113996958303 0.60893195412523526411 -0.16339086406367900328 0.66133514092471024082 0.89702945006098633307 -0.22318278774023947442 -0.1104174378471075163 -0.78203068651519169752 0.85617581347481430676 0.29726176995301523132 -0.074330325280865486293 -0.24346529084192980452 0.26832358442679915544 0.12736953055498928533 -0.21899319801883285197 0.066369605041595267081 -1.0365272550650386219 -0.32545206312357416456 0.18820915008526736822 1.2085616702386425825 -0.19059535537815683326 2.2759815820216786619 1.1861986368393919733 0.1189492068566146421 -0.35337385080889710531 -1.9158161400024189547 0.70136160332048425037 -2.8278452360748209671 1.9121279813422609184 3.0808165062889498742 0.64394277356546592017 -0.42370566705451878642 0.18360896244913110786 0.12013769553345506058 0.033717606795114804519 0.095513481100559724513 -0.54021172961282681868 -0.31067598570730181606 0.74176035607304691144 0.42245254387150027453 -0.67813279547718896545 -1.2143161413836973672 2.8204156408821501323 0.24420999812276780738 -1.5697079205662904933 2.0817690893146649778 -0.44595866050573629291 0.12779255461370994662 0.088326510214865872062 1.5023991541923857884 -0.33778736671527043178 0.83953858217605514813 1.3287573870282414212 1.2831164802821308779 -3.6173518548661189875 -0.83514281839714044064 -0.44418712836924489906;0.23576043903739565821 0.93677154572407927979 -0.14159106052707373657 -1.1370252532218705355 0.73096067189736069203 1.3534274418943190721 -0.76352997214696283201 -1.3418493367248394144 0.13499697455826645265 2.0480799059021856934 -0.055029454786817047496 -0.55054092761332362738 0.92553494112053336096 -1.0910433403243506856 -0.78626163250734792953 -0.52140641646609886539 -0.11488129969134340536 1.3356873830654485413 -0.50692741224490855956 -0.94869775680624146563 0.36002546480929636941 0.12508110329311913911 0.83654752735505799599 -0.080531969052422061606 0.23818442143608090089 0.33931364258557711322 2.1297096155319250599 -1.6630164446183708371 -0.81296086337336048722 -0.38659970719180980492 -0.75126738599331843727 0.060003837579991475826 -0.84851146161586277206 -1.2291302887393151799 3.7367766557902055702 0.15875254765718571637 0.46631229166541193765 -0.07526863379894412065 -0.43712161392217202538 1.5246971522100862817 1.2915582795639557467 -1.0223111608500059511 -1.3163429691689612078 1.0420110566645433003 -0.96830967779287413499 2.9948577754657743633 1.3659743293656552154 1.9581197047749887563 0.10230575743657395471 1.9839268596606736139 1.0674227730184839835 -1.2244174673090537642 -1.1532171744319952289 2.8217509981118418239 0.43475525635343770237 0.31615585787498906578 0.66590013426526728502 1.7564752460023882463 -0.57849231883218255046 0.19145513991159088252;-0.37196066619496881422 0.64418470306864572539 0.90575106223370416281 -0.116367793187493615 -0.20498486746142471904 -0.55306986118068945935 6.8159936540079781864 -1.4034333062505419676 -0.43358309247246501483 0.64522656660016741714 -0.072661755616419604342 1.5203494178053755803 -0.052377135725095606833 0.66901699138335857242 0.12828316307216550141 -0.41065686992547106859 -0.28585472589095900497 1.4438026466727116315 -1.091178864873093346 1.6689175816140471298 -1.1153451598835375513 1.0007835794688137998 0.62414130129037159733 -0.24636161378671977973 -1.174782685591440945 -0.99067370603924431727 0.25273154171111300581 2.1433687505613971958 -0.45283199814785080051 1.3924433458573499678 -0.55052518652972359803 0.95810852750339547956 -1.6428371337357838833 -1.575318586767292306 1.873901191335922034 0.21100502886587152451 -0.24632227533913778061 -0.09970211588068272901 -1.1133076753392079361 1.5784182899698542268 0.041581969122940480588 0.036141406464403398602 0.89806084626259830017 2.3630716602973023122 -0.21673531269335227778 -0.30116045728029883222 -0.60061600539097559359 -1.3671198456370206031 -1.9544766767548606978 0.85399989989892999276 -0.76099939391132975786 -0.60008618763240650917 -1.4527648875229226544 -0.22653771392158206233 -0.52908663970252334252 -3.3962952882575869751 0.80271587309867686866 1.0084341315182492327 -0.17606450199369830245 -0.19311940624676166012];

% Output 1
y1_step1.ymin = -1;
y1_step1.gain = [0.0282696695327288;0.0070350790605202;0.0126135870681432;0.100652018317263;0.12258829269832;0.0537554024716214];
y1_step1.xoffset = [-35.0753350925619;-136.093485099445;-75.6363171110068;-8.80307340288392;-8.66426572631993;-18.3354764457893];

% ===== SIMULATION ========

% Dimensions
Q = size(x1,1); % samples

% Input 1
x1 = x1';
xp1 = mapminmax_apply(x1,x1_step1);

% Layer 1
a1 = tansig_apply(repmat(b1,1,Q) + IW1_1*xp1);

% Layer 2
a2 = repmat(b2,1,Q) + LW2_1*a1;

% Output 1
y1 = mapminmax_reverse(a2,y1_step1);
y1 = y1';
end

% ===== MODULE FUNCTIONS ========

% Map Minimum and Maximum Input Processing Function
function y = mapminmax_apply(x,settings)
y = bsxfun(@minus,x,settings.xoffset);
y = bsxfun(@times,y,settings.gain);
y = bsxfun(@plus,y,settings.ymin);
end

% Sigmoid Symmetric Transfer Function
function a = tansig_apply(n,~)
a = 2 ./ (1 + exp(-2*n)) - 1;
end

% Map Minimum and Maximum Output Reverse-Processing Function
function x = mapminmax_reverse(y,settings)
x = bsxfun(@minus,y,settings.ymin);
x = bsxfun(@rdivide,x,settings.gain);
x = bsxfun(@plus,x,settings.xoffset);
end
